<?xml version="1.0"?>
<opencv_storage>
<cascade>
  <stageType>BOOST</stageType>
  <featureType>LBP</featureType>
  <height>48</height>
  <width>48</width>
  <stageParams>
    <boostType>GAB</boostType>
    <minHitRate>9.9500000476837158e-01</minHitRate>
    <maxFalseAlarm>5.0000000000000000e-01</maxFalseAlarm>
    <weightTrimRate>9.4999998807907104e-01</weightTrimRate>
    <maxDepth>1</maxDepth>
    <maxWeakCount>100</maxWeakCount></stageParams>
  <featureParams>
    <maxCatCount>256</maxCatCount>
    <featSize>1</featSize></featureParams>
  <stageNum>2</stageNum>
  <stages>
    <!-- stage 0 -->
    <_>
      <maxWeakCount>2</maxWeakCount>
      <stageThreshold>-7.4717164039611816e-01</stageThreshold>
      <weakClassifiers>
        <_>
          <internalNodes>
            0 -1 0 -78118913 -212418049 -1794321421 -7413294 -881921601
            -561078061 -77862145 -2621441</internalNodes>
          <leafValues>
            -9.7185927629470825e-01 2.3999999463558197e-01</leafValues></_>
        <_>
          <internalNodes>
            0 -1 3 -69206529 -235581099 2131203834 -40709666 -74723589
            -89392981 -678831106 -51383332</internalNodes>
          <leafValues>
            -9.8717164993286133e-01 3.2923460006713867e-01</leafValues></_></weakClassifiers></_>
    <!-- stage 1 -->
    <_>
      <maxWeakCount>2</maxWeakCount>
      <stageThreshold>-5.9174710512161255e-01</stageThreshold>
      <weakClassifiers>
        <_>
          <internalNodes>
            0 -1 1 -2057 -1844718653 -1820209021 -219680417 -304884785
            -670840701 -637279287 -1049105</internalNodes>
          <leafValues>
            -9.5665025711059570e-01 5.3333336114883423e-01</leafValues></_>
        <_>
          <internalNodes>
            0 -1 2 -2093587459 -574761507 1906266493 -10497121
            -407925761 -113509954 -340218945 -4064346</internalNodes>
          <leafValues>
            -9.8074752092361450e-01 3.6490315198898315e-01</leafValues></_></weakClassifiers></_></stages>
  <features>
    <_>
      <rect>
        2 19 10 9</rect></_>
    <_>
      <rect>
        3 5 2 7</rect></_>
    <_>
      <rect>
        4 0 8 2</rect></_>
    <_>
      <rect>
        6 24 13 7</rect></_></features></cascade>
</opencv_storage>
